{"model": {"W1": [[0.3095251826941273, 0.5133791895545646, 0.4568449018988559, 0.4826397398041523], [0.07102562068569748, 0.029525848932171552, 0.7026034891810772, 0.42758160438061243], [0.024535183600050706, 0.29803455343467344, 0.18422726393935587, -0.9920569570431249], [0.16380267322124653, 0.48904557762229506, 0.7698213204082316, -0.15635551176350324], [0.04498715528624834, 0.2438181522298538, 0.0598416774029546, 0.8235209234370507], [0.5017167725048424, -0.5373753472637823, 0.7352037952234814, 0.8612156096894794], [0.8101867512418851, 0.3346974926178401, 0.2413331785350569, 0.13601726706179687], [0.08413293062004314, -0.2189813031549012, 0.4258338123255101, 0.47945047781662287], [0.5481044092352853, -0.33154214539283416, 1.093100766564242, 1.339492250913511], [0.035220030967144635, -0.5260802890640176, 0.8457473421451015, 1.5108670821675063], [-0.11663843667799031, 0.42448483163245454, 0.9162314401503145, 0.2900556891202592], [0.7039590610601107, 0.05593529250853783, 0.30141767342982245, 0.13046973220057784]], "b1": [[-0.03981310263588391], [-0.00793692556986287], [-0.36883064045992014], [-0.13597374072385088], [0.03580253271969347], [0.21375259702684377], [-0.11125777451150294], [0.0886079059317362], [0.15378084963516006], [0.18630959801100389], [0.03422103754343976], [-0.004522998356061879]], "W2": [[0.007047910490890905, 0.7651248076308546, 0.24186067949001505, 0.16622202264498165, 0.7817993301502005, -0.08886155379480569, -0.12349826778190098, 0.793440253014477, 0.5746863171928496, -0.07875174162201236, 0.585096162863295, 0.7577773983944106], [0.0235660218615136, 0.43741988299120416, 0.35243044340351576, 0.5480070863263149, 0.08852036323750682, -0.1990173174355163, 0.5190904308991287, 0.6065004920392979, 1.2435911352351625, 0.21537184877945975, 0.22298553142221178, 0.31145423090162444], [0.16997408686577747, 0.1934218622874541, 0.9627441054539072, 0.3501029609829848, -0.06605220838657162, 1.1135898916422493, 0.09364026047242832, 1.0316179769259468, -0.38307826400354184, 1.1536178537091653, -0.3264770960915605, 0.10218189485181339], [-0.21692101115108978, -0.18604232616716446, 1.0090333393009265, 0.6212581812207966, -0.29899362790902007, 0.5752683010244409, 0.7044699173373223, 0.5432435230078853, -0.6655202123280479, 1.4042652102190747, 0.19375162719233144, 0.2537346344272407]], "b2": [[0.051153126280413776], [0.07345352936644127], [-0.21226351185794506], [-0.17494684448776163]], "W3": [[-0.5886278828354592, -0.6169810473755337, 1.6350527838543898, 1.6916660235166334]], "b3": [[-0.24988246088261942]]}, "meta": {"seeded": [true, 345], "architecture": {"arch": {"1": 12, "2": 4, "3": 1}, "AF": {"1": "relu", "2": "relu", "3": "sigmoid"}, "depth": 3}, "results": {"accuracy": 0.9632721202003339}, "training": {"learning algo": "GD", "learning_rate": 0.01, "iterations": 5000, "train size": 599}, "errors": {}}}